-8.739146561498016
-0.20541192933411145
1.1262502699915302
-10.027462773384404
9.429531182642245
12.810410878853974
4.16204468669773
6.576255038519221
1.0048390568258538
5.569996468465267
4.795045312259004
-6.188877516573605
-22.159079441864336
-5.773049197022691
13.82344111324687
-1.0329769535437112
-1.6043631428081901
-13.990064269343435
-6.373718176691133
2.3975000541348157
19.51907232939413
-5.987414834342762
-4.920480257701806
-3.430422022322723
0.11628675999649779
-8.708309438714208
-0.15532392453668842
-10.574942985634049
4.002002871499663
4.514331203504521
-12.068689761755811
-7.49599662367577
-11.044057062133843
1.147128064628659
-7.607020069493915
7.806026446141163
-2.0165087916770292
-0.9028788739045512
2.1415810832397018
16.591763995627716
-14.326963370498504
-4.083581153193615
-1.5676909957481846
2.7800693597603368
-17.61926520345426
-6.97710128838648
-2.5131558574111494
-3.6142050671761488
-7.947327973540125
0.40201610985652425
1.7922182532505164
9.313967993414833
-2.0055793062473137
7.565001948231423
-4.4751804227400935
5.60772882911395
11.407753447770508
8.087912135259552
-1.918953956666123
-1.2590993350606217
18.187135414440423
-0.3321443803646471
0.018641983064181078
19.606282704284098
5.921880971060743
-8.708049770261363
12.970683847331394
-4.280062500750019
11.213521038848448
-9.479705466814089
-13.15905549652082
2.9997981491415993
9.794652406591515
4.91556401096012
-13.864078149805042
-9.953738806420446
7.609711656521279
7.664802541532
-12.231931728608457
7.786316740321246
11.283485184559254
13.253631846762795
0.6709739169818763
-12.538259749605709
3.5171808007160137
-6.918023262028024
13.64737282797686
9.557762814975135
-0.1581459819383464
2.1578953519824298
1.76976472004069
4.975258345718775
26.43694351267446
0.39981265049639547
7.474971407086338
-7.221826516603851
4.983159330150144
-11.371771460527375
-10.785164811300668
2.992380251917347
-3.8758944739632204
8.197769053848324
11.10506753942584
-1.8997527683336886
-4.641505531132598
0.7103630568075392
-4.561565726078243
10.407882047108274
18.30962375204756
3.1494938661128344
4.4060370722780196
-11.181399846481545
-13.055426893393108
-18.137111948621932
-1.9929288561890302
-14.606450366400258
0.9539012668149318
5.163819706689174
9.085932069672054
6.989596297406009
6.002823752208083
-6.492895452644338
-8.310492448963194
1.7365434618518338
10.214152812510406
-12.933205399127953
-17.523256756373794
6.298086770261536
-1.9553350753938363
-6.630876991500401
-3.7703214409208368
-12.290611609031489
8.656099336351161
1.923917006894993
13.443279083164551
-6.378380391984446
-13.701633325721192
4.749787180758529
0.26464424751685756
-4.676131163657636
-9.459944932001456
-4.996536448875099
-11.389952456467398
3.4912480471824874
-9.301758842442544
7.069875696779729
0.44431828179220656
-0.7116202561295977
-1.2990852305261003
6.260453263824774
5.161627083755869
6.455564873237615
0.5120734872645777
-17.97726093885104
9.757027966632615
6.305723734036103
4.027276469199492
-0.007619716785320141
-7.012474801727558
-13.38910793211883
-10.005336380252889
3.1056142744971473
0.5621131678132492
-7.764100505409289
-12.40968787304556
17.3399118488066
-4.088655435981883
1.6420100875046353
0.9347267882172059
-6.3687465269797325
-11.02679987679463
-0.8123404127281401
-6.732595897726806
-7.859338677344017
-2.413448808432239
11.800593142045523
1.1353749003853666
-6.974017004044697
4.470436808249728
-11.970770975389042
3.989825646926688
2.79383044118205
10.618917805216071
-11.197016791546583
7.400862874786339
-4.748049232695497
6.0698055452170925
-2.1784576638097075
3.4817261809352003
11.83160142090567
-3.2282356373563204
1.699573435268385
-3.732284336509518
-5.4564127581798605
-2.0800488372430093
-1.7088110759476827
-7.484969610360735
6.710084514540181
7.267299029982842
-10.951871757165236
-4.824654254113141
4.690914478729977
-12.12191242210888
0.44087100775773835
-0.9835114600887056
5.2211345902398
8.530896978104334
-5.320844968046795
-0.4098523301172402
-10.384217483694336
2.856707311835481
22.728160030036552
-1.1324321295558193
14.052195274831204
0.8186968315069003
-8.558562198316235
2.422708146643821
8.227752297033657
-6.6168841207575975
-3.0405507035615935
-6.433823530938364
-11.095334455288768
-1.5222035759533226
4.017089136521077
2.47780155765164
16.599196786951467
4.688275995791385
4.5034180139173055
-15.258267491466784
-6.74493072575175
-4.028503048590293
-13.291156837498866
-8.87833061560153
11.181407925164416
10.199049223611096
0.4670545216818214
-9.606910159920083
-1.8566866683972718
-4.552318573020329
-3.8184458365352105
2.9310307556688713
9.545146570397076
-3.284343390413729
4.217848540863849
-5.697741871048324
3.694744885164247
0.3736992271167813
5.0289052118041955
-7.751394785006697
9.015175546581295
-5.483216822840007
-5.973420710629032
0.8736751962094713
9.735317672016226
-3.4862174790452762
-7.89411387145104
14.478473707283008
-15.68438808719686
-4.719444358698333
6.125883274475455
0.9108039300997178
-1.7133135823053571
2.7166132441677378
5.045209574400482
3.6590781500693192
-5.742571070192231
-4.706611022884985
-1.856112817684837
14.039405100301574
12.274234386948422
-3.183007889906091
-13.395852379300619
0.4519283629777958
7.876424738424711
14.865296322796514
-13.004836160204539
7.696426723508597
4.164148364401464
-7.305271652954492
7.44318400989022
4.61970758698339
-7.904699226887499
-17.170341587220932
-5.404871758248361
-2.1295841040928156
-12.75079179492233
8.991193753475194
16.182160739357336
2.4149366399904166
10.711095246507014
12.652174256438503
3.0324442933769613
-7.379214639783134
2.176290330223739
-4.043948720209955
5.586809565679337
-13.287228749910062
1.7647087148876364
-4.397438221919406
-12.67668120198651
-0.5831202378432303
13.931817278838173
-9.663789501651348
5.389201594331955
-2.8874685290024154
2.5628811561736695
11.615484610362378
4.208753557401257
0.4023438585391539
-7.659358665281544
1.0551846133043412
-1.7822225237109985
2.340023653991777
-9.98822355164717
9.519680970461925
-8.582021403812575
1.9202834212658921
9.09597095332375
-6.717037095895478
-0.029866843595001802
3.3673284647046926
3.61871118920193
-0.1653701969140402
-3.6661489654330404
-6.394728243273568
-8.450322875416507
13.923291277385019
4.969088215788162
11.92960624060224
-4.017231771348748
7.32428742931434
8.280696388775965
14.649594253511115
-2.9317378439465482
-2.3907844327324845
1.0569227007008992
-1.134044252171368
0.6596094627362546
-6.678878937772932
21.96192211188218
-3.5765224156627955
-14.09400601795473
5.187144279785596
-5.1643351457309095
-9.606021449415653
-16.289931821066332
-6.224966714604563
-7.764634092244482
-0.870116224271572
-3.885078998114885
-5.72560660467272