-6.816701289043279
-11.953030593405398
-0.6203055139696794
4.595132459071704
-5.458025130385541
0.8665793606669597
-7.737325219235622
4.501615545725095
3.309157521019845
-0.8337026903056188
-8.753110904702094
10.15826795855868
3.6480997876155854
-0.9442373648858275
18.14696848856452
7.75414337737917
2.830385020460029
-13.316141452738822
0.3181532539283737
3.4531153173507048
18.56726310451019
-2.5769551780775206
-0.569820092761837
5.369258025791828
-20.26601190012312
15.126022612071145
-12.173107345470981
-7.465160992127222
-6.589425402035509
-10.831292005803078
3.326166628314012
1.9250503775565404
-13.426748251655866
-6.77569664886228
-1.4014769426153917
6.87361298229589
1.8734819041316542
-7.539069312281975
-5.989990403491402
-5.0927026580101264
14.818870639523135
-8.724822181687477
-15.333568390221508
24.82547843412146
1.8724750431599775
2.527191737237125
-11.36147967606017
-15.701700036879197
18.517713665164123
-1.6003990426720311
-20.5628427212323
-7.407039206377451
6.951133310105564
12.863515278301236
-12.362218345171216
3.6885481913321696
4.0022686898006015
5.390665724673784
-17.49555954383042
-14.417569131904582
-8.490488412750329
-9.020543375899212
-11.412700298843761
11.707589368157132
11.008364471269342
-12.161732629356575
-8.21948206802912
-0.8076800859595379
5.241394652865721
2.0151389979206167
-11.509983989100839
-1.1584220920190318
-6.182215146379849
7.738418278804818
12.99707479419523
6.609359559206219
-10.1958948541176
-14.862858363842331
0.04745901694530552
13.727998479049353
-1.3910564505445273
-3.2800532433599874
11.50254693960337
-9.309626177771964
9.012272800337502
2.4246817629329462
-0.4109843959398931
-17.149395480970746
8.54932328324805
-4.75917030375647
7.712627975772442
-11.53505965962718
2.534548181534434
-5.979607258759546
-0.06108260362170881
-16.489750319019816
12.173739983522397
10.448299057327993
0.7567173631629257
-17.066796163310627
1.499860335417943
1.8865072875945599
2.5099315422955013
-2.691501641971959
1.1214664634466118
10.26314707957998
-3.9770832411560364
20.048497580733834
-13.890351441696948
19.986742328839885
-11.648133832698662
6.956205605720148
13.349555245570334
9.742533317902211
-0.5822940667964696
-8.404971261024846
13.960920370683255
4.777195198299977
-3.0075629814934883
-5.188579193100282
-15.30320453512769
5.780806015880209
12.418286213467717
-1.4957024266208403
-2.9709927996673224
3.187336014891567
5.122084060515461
17.44827986133474
-2.6525558538020544
-10.195437027774545
-18.576965619957946
-0.6412741489538257
9.822274984856117
-23.880172758332343
0.7647876855108557
-16.52385398228698
-2.3441892392472905
-15.287700732053594
-13.852183211775912
-1.842335937487358
-14.904609661203468
-9.00477757406335
-9.34650943967256
8.794651753505292
2.4327569990162408
-6.483446276821547
-4.665825276319771
-30.335169214505605
-4.617118302507356
22.77569250471095
-12.437913396490027
-15.590614850944512
-2.04107503060687
6.364299655563697
13.390111834659404
3.3882520584960205
4.697984761468871
-9.417439657861326
-13.814768630469771
-8.172016685647781
12.25434564408523
20.991499707913977
5.719178634529247
22.388304816373612
-1.5921246417549622
2.188954931663873
-1.2690023953730107
-12.876149592998688
-23.168756269931066
-4.865670085373637
1.396486284231773
2.200666903139461
-7.621244536855246
7.140783614422543
-10.276826284587369
-6.352347950540221
-10.710878377626758
8.440782417431889
0.03961160123975249
16.585203875784654
0.2412105669133594
3.2879417144416365
-11.525310214974104
15.787539821791784
19.539337864680217
6.415659136808543
4.729007964068164
-19.882700587648365
-25.078188190872993
-1.3063818953831827
12.467092916823661
7.746738731659492
-8.314788776743379
12.211365352788043
-1.364636046217536
1.5692042308296084
-9.058732145844285
-11.046983908148272
0.20756071719328506
3.4735226518471047
-18.80918171073824
15.095343819409244
13.245394749303326
0.5635687091247332
-8.29943526958764
11.152372487938116
7.214725181343539
-20.578137394370657
-7.166982617282382
7.364752359371679
-21.881448258363303
1.0476609788564009
9.464502482016163
-7.008189010173911
-3.7581228128141113
4.763045572479215
4.321584536414065
-3.7739954091580863
7.091691934400751
-8.566171395973173
12.709997440145898
-9.765270848934602
27.00083311302549
2.727382774883642
-7.9028006349585445
-0.5422352012683983
0.23285061145159125
-12.365318952804616
6.037010436548024
-3.844172528894738
-3.5538312380978367
-3.6381425055731844
15.744323703065053
-7.57245007714646
5.603045825422095
-4.9252371822979395
-2.1650735352418766
-7.112599570002268
14.005328715311444
-5.78329224431927
-15.867904981948191
9.940266387032542
8.84523584843327
0.6462575160871993
-8.226378515460896
-15.462599998212657
2.292247367175564
3.646250077540479
-14.939187488451706
20.8969845088466
29.088829730073122
8.74288574240288
-3.033635216988502
2.2178397168372967
-6.67399293417988
-14.109953686551341
2.737438727561952
-4.550980512804505
-12.051480772372303
-5.095418899052016
-3.65383178411218
-0.06950802753492336
-21.99472283504647
-1.0698200752164126
-10.613844586571432
5.767237053335054
-3.37977018765811
2.0413848697257606
-6.846602321415066
13.717930841221092
1.7053654316873803
9.474926781452215
1.3518581093582995
-6.228569140309151
-9.7792506524199
-8.698964035979698
-6.303913392791279
5.224604999808683
-21.040921996134195
10.984707034491565
-0.4818119830671739
14.805032546605185
-9.382749893428379
8.877295744766553
-1.676344432109911
-5.502181190321921
-13.091882001802496
21.644261352821303
1.4362030496658866
-13.700630801444964
13.037382445594735
3.949710921832557
1.8313993797425407
-2.4106638924897177
0.594325513664671
-6.904418211158182
9.768350224036348
3.6100555658597946
6.652614560742755
4.859981508847346
2.6020836586810305
1.1063268043529697
-0.8007140013624724
2.1134704978979872
4.342925893296027
7.973072076763569
4.19198933584963
-26.132146029612553
-6.675249609673571
4.040713996969827
3.5776690570394822
4.592174542906676
12.752486755888558
-0.22434739988202346
-8.639229117448416
-4.490361271415821
-1.499746360358832
-2.184608123170428
-10.685143257295683
18.049533084970996
8.949829445499137
-8.949359485442407
-6.116460683617325
-2.1321155565033565
1.776136501721012
-2.936970967065015
11.150589294053123
-0.6850163252342911
10.806995659254333
-7.0845524266168685
-4.830692757649081
-3.4766327835293422
-7.38588302425037
22.645987751073278
-4.922299672842532
7.2687060408153625
14.082300437697596
3.474803419946315
-6.4521463644272465
7.330440179647396
-17.872686257441483
-18.657610333668806
-1.1400345465853257
10.051110912573149
13.415227517374097
0.6520202214958639
5.507085570159028
-3.8231154476483575
-0.015509376961210464
-4.055574502497219
-5.0747568020420735