5.416318195777841
0.8620752761815298
-16.538705011279355
-1.0567182782699995
-0.35917180655687087
-17.298004017963436
-14.891025271979174
-8.698059497676986
12.812881495587678
4.860977401275361
6.1919731379490885
-15.203175941531049
-0.422559026262188
-2.776531362683307
10.42502253342708
-0.07176222710731983
-7.747621026044541
1.1167167766530386
-15.48316759105541
0.13523319679763418
23.903770110581053
-5.555591849100106
-3.9064275291794646
-16.84106631401092
0.2697496317650767
0.12144337054612464
-20.151715240865762
-10.16201656283875
6.381661312078084
0.8988503493694993
-32.57559892735956
3.8059297722714565
27.15137723741785
-30.923968330652325
-5.014909924744391
-24.87410633937652
13.07826557270038
25.1600620475053
28.65960875470934
22.403717511716295
-0.4452534517228808
0.9283098772725903
22.033390091115994
-3.161258350004766
5.842750945678999
9.7984832538435
-16.11952799787161
-49.426206220701566
-22.160151154641337
15.849530312690366
-21.700130448311974
9.086346641393384
3.6708405639291724
19.572189971614534
29.544537580379956
17.29528574063896
2.701455411368803
5.051726714656244
12.061910588554587
3.913069885169624
-25.548825740919273
9.114358957215424
23.333359425783176
-17.23432159705537
1.3684864565995898
2.257345591562029
31.311098600825304
12.312420933770467
-21.793209223356723
-27.217263619294567
8.097459802618195
-17.684841902511693
-11.248982197290864
-9.866980943361114
-10.678155136807327
14.997824857865682
-12.882955312780677
-7.375855298171583
2.6769461172049382
-15.065870818316958
-16.904923977879903
-7.565944600125644
-13.232443547936912
-1.0081129258539252
-8.624237378539501
-8.596556742509005
-23.038964813779458
12.944225436341391
9.207095199085217
3.7358678763354938
-25.361270119737764
-39.2673379695124
0.7806167269086512
11.750249463654301
-15.558040354778083
-21.77672415565826
-9.111752129536606
6.698894237774758
17.171112525590907
11.627751097259935
15.973087868912684
-11.23329846175971
1.6206565625055585
3.093233058768451
-17.669757996023925
-14.176959239359558
-26.74045004586967
-3.5214796234747237
1.1118431578377237
23.04002246429069
-4.6704534985883495
29.96656415555544
3.3348688382244234
-1.8369844905918191
-11.379968287728413
-8.930905883090153
21.715870234470266
-31.013934814263198
3.589881764668047
29.447000025894937
5.714233386076301
-11.02744498084295
5.6336373024300626
4.045963466936298
15.218647517775338
11.452490834150835
7.561485226704431
-8.364592169251452
-24.896473783859328
-7.013116871554636
-12.710744589668131
26.79800839857058
-19.18870969215838
7.26483710714195
-0.9821643765673868
-17.37810954229878
5.0341259558087605
6.358941453708581
16.635889872112514
-1.4178237008808972
14.7687550369316
16.47093759880052
-13.14124341317323
-4.439795234138156
-14.066874488206444
8.98149847914424
-26.784886135767163
6.293862639196052
30.95066068015632
6.9601007726969755
-24.054375083850264
2.808034672003248
6.2730103699816055
-11.039086689331416
9.816458443781285
-0.15384022290084615
-12.996426712670738
-21.47022767816562
-26.803128838490053
-4.277253624609158
-29.208892665377874
7.61753055823711
17.120488051633984
-1.7712544902816418
6.040560694151463
-12.233515323994158
-14.341395792710529
-15.203827808613838
-4.409356352460059
-8.783409405596666
1.6419175151698522
28.538215399049157
-21.12746470021677
5.35620348284465
1.12837642742674
7.402411067860594
-4.960858420516034
16.43090893445953
-0.5312766874623088
16.92882220026179
-8.666851564500433
12.86045950614147
2.172898023924188
14.057514657488719
31.23672145528185
17.23184310907477
31.50379757365779
-15.090740997992539
-18.087203967440363
-2.5425666126748867
-19.81942464379909
12.336952058844455
-19.736757519008158
-19.16639302159483
-16.967763036956423
-3.8889002702983735
7.697137273607546
13.231582588802732
3.608774525861572
-11.889874985278926
-34.94990836844908
0.01528305223995835
2.184737612859599
8.757044779980088
-17.541580080852682
8.777591167019544
1.5717311340646598
-7.602529405675297
-2.8706632604794766
-9.31273357460088
-24.172730962674965
3.5049503269664832
-5.018273933001479
6.285998712894209
-0.036687608027921925
-12.017855729284404
-26.97685195320691
-5.774820748727819
16.477356057644876
-12.113969035796718
-8.452680100833176
5.325784160269443
-8.714629473247097
-17.705721905323443
-9.958499780187164
11.005008161911277
9.105660530199248
12.045673728114512
-7.826560985748836
23.042445076057735
-3.3655594597692313
9.870116810664527
6.234011570500291
-0.19441479500859338
-21.094445804105437
-3.3067539028863036
-9.022309544873284
2.633774602584861
7.473022536123362
-10.529304183250316
30.39690799434922
27.795640973527966
-7.995589552935204
-13.712563462084244
19.846547824765842
7.355323659801504
19.653032704955262
20.533386531671436
6.776880270832129
25.983392331937956
-4.709323540938686
9.25097421648873
5.24221633493808
-14.117408741951083
15.941663600363247
-47.67953830689746
4.784457559155965
12.579939621986382
-24.62388039970446
-13.111306698900629
-5.861506651928794
-10.703131527929255
-39.19070575788259
-31.847657347608525
4.103992055073986
3.0797591958394346
0.49392747216979815
4.967652907522941
-9.33398743444699
5.876239313334438
-1.491141027952034
-8.547470164045048
-18.84496744735635
11.105142648994608
-16.993527558969262
-0.7838499232760072
23.078503459652623
-2.8755562884422634
-3.1706221128847334
-21.486328579077608
18.439099430331996
4.097999725446735
-7.039340640056104
14.93398387353231
-1.05868403950456
-17.106354082545135
-9.21736064377819
-19.25280713902504
-15.22411921388893
-11.139719279870649
5.709953952885517
-2.69896306006494
19.754867703068165
12.843389211418573
-10.418924944505822
5.964116938057602
-21.175514675486607
-15.851023141039096
-16.3493579884346
-1.2956912655709993
18.618373740516436
18.956320762910295
8.112469999811573
-13.95200029026292
3.264444257946992
-14.50410171184813
14.960460081089547
1.7177049873847228
6.56716211310747
-27.524568330955088
5.621982827055279
-9.064959518556762
-10.007912603818745
0.23984590934691163
-12.141131378675622
-10.069386445579452
4.838710835317876
-2.8680801147311605
-4.513579634023565
10.64862664286445
-28.063686583329787
10.51681411812287
-31.769425440068733
-10.792300393288887
-38.131554141661475
-12.403113394955527
17.758637535721945
4.869295228575798
10.697379323495078
7.039737325399073
-20.941616304267214
-7.445863999839901
-9.369275268034151
29.10013597571655
-26.87167887514158
21.34865054383949
3.177248971902852
29.437598388480428
-1.258987620751531
-2.6298770246912553
-18.233862177030517
6.162184146352358
2.149505057428661
-16.758090294956762
12.68007048145582
1.5972205611362793
11.973329670785153
15.573940701100886
-2.4405129102630476
-14.252465961516114
-9.460068725286218