-7.892084152436555
25.57902174281798
-11.569289971672879
-25.20223619411305
4.578464986771211
-35.774588127743804
17.988677562708038
14.586651695681045
25.7025313412678
-8.40273195515558
-4.620419607244808
29.54327654681092
-15.902612661289577
2.597446034608506
0.6405172024690091
10.10047503609837
-3.4800227221773863
-19.248501836221617
-6.4427941460805656
0.7739561362500418
-28.91097622764126
7.099982762286583
29.296229828710647
12.044003210720781
1.419541411355579
19.82558464853881
14.735324828538133
-16.066334154932573
18.23855881679975
-14.585398098919205
8.230667616236296
17.742537447226184
-20.470982954661043
5.908512496905986
-39.29517908622812
-15.884504098850755
-11.033827846316658
5.048713627728695
14.322053141633996
-15.792752690734467
6.976583848189552
-16.590987997722273
-9.474807336049684
28.962552147756313
-18.16466540203507
22.13087598760416
9.166247325914627
-27.40965439473208
-25.735141125328177
1.1524078679974603
-20.548994443251352
4.641456764596431
-11.224714176548147
37.746316781003486
-10.834646500716588
-7.405558275425045
-20.001921398976283
-9.259003778083095
-13.1813244911761
-30.33452323647426
-18.429399119019827
-45.214424997440446
-8.416537815034493
29.752966283157708
26.99098922469183
-8.10735339654312
5.041660825565997
23.128347805839212
17.04276335112771
-9.714287728953403
-8.399714599483048
-47.24236121016063
3.42602679031972
14.5361942471514
28.17977145509967
-13.600125314425325
2.9707056622834522
5.265474001623941
8.984994823827565
17.16679415734893
21.316604596487583
36.6727115084025
15.76495807540198
14.379625894023343
5.130624852925829
-3.1249872803586287
2.0993851060594118
-35.7866623008575
20.72476835919796
20.993747578159265
-1.233375933970185
13.657514892726272
-3.860287128022555
-16.662921261713045
14.464402881230379
5.786686602943776
-19.1802848581702
11.594718910444639
5.905780235521422
-7.851845774070575
-5.994039623091381
-5.452155935310698
-11.657515909693625
23.25123950335972
26.924211431000817
-11.21965758044853
-1.9709328855324204
-12.522497451706883
0.2901464253647972
-31.82426970696225
12.868185630772128
20.65169846634501
6.455187884597402
9.234634972372653
36.673823484428915
-46.979389576756006
11.53383938632375
-16.551615527544573
-7.92047543653802
-19.14761982741932
-7.768035450816795
-5.3746800728469495
-2.0144223397899412
13.496089460480585
-4.433517662290898
25.15120031131828
-11.864044666088132
-22.872051044970753
-14.939094846520117
11.944807954230765
20.523660427255184
-7.396070718547742
-20.786320667673245
-12.576896919991276
10.883330611399664
-4.761515097196919
-6.3957252563328515
-16.41549596847572
26.539579240266363
-2.9518340485087995
-8.108616993560691
5.177433022150892
-4.043741491058574
-11.645919862504533
8.689303593619275
5.244172102471753
14.297745930265696
-1.2364563075862618
7.028055534280057
7.012280364545538
-23.00121496185914
-10.503231682734262
-0.13582990289306485
-8.339698825482516
-53.432322369971914
7.207618773720051
21.626430799428736
22.4448323139082
-10.456140329786939
20.357087043509853
-3.79432785709301
-10.995823921373685
-21.2663612503421
-0.9704969178252246
2.909720885475891
9.919167324432024
6.931393912247431
7.259708216870923
-21.919659798524272
5.848738816131583
-26.394597773471173
0.5098849882435088
32.39786515422597
18.017402261889796
-27.983611041744506
-0.527138001825405
-16.413442647323492
-3.710111150238979
-0.9229910206489661
-1.269100216296813
-19.616844785411555
-1.3835320548290102
-3.829422826608523
8.607484411935676
7.527399380844077
12.610033558893182
-5.582122070075315
6.1659519094440265
34.46807655289869
2.8229734176875305
-3.989750037459591
-51.71548441288602
4.715012845131991
-4.754722245735513
18.020628161491217
9.001418678445372
-11.212033596129233
22.260430812638425
13.6321624540809
-19.9782480748084
3.0253217438703253
-17.225897272471958
16.306800958827367
3.5912380433550966
6.974323966435554
-5.916258200296354
-25.395155379869024
-8.587997159015082
-11.423751360928339
-0.0678461154581384
-30.09797328800737
-4.50228187377607
1.4464309258900452
7.233577382921144
2.7375552681113557
22.79673060321204
-19.51231507465619
12.262110646365757
-0.6638785118255652
4.6533126498069395
-3.058362503057944
7.048653713096645
8.898227958796298
26.794060557867382
16.703365964499273
-10.352651486269346
10.915841345702596
-10.947082959360266
7.624519387962613
29.35547562641962
-22.469260805504604
-16.82475334606198
-1.564812510982869
-26.752162442526043
-2.6453318836920263
-8.218330602617334
31.00069221567592
-3.459952613185914
5.614026381654617
9.86035303032267
15.070676108425525
-9.158014996150488
3.9039008854136434
8.454597990744197
-9.214986693393193
-5.476764167921693
-5.414071298070808
12.485536269272954
-38.05391672589851
10.20142830434884
3.5679124465994105
-4.83355266748729
-16.221991100514117
4.101753577126097
18.100264626828462
-9.766001479602437
6.110012604954466
-12.500049453686838
-18.051193046775055
-18.200778388036674
-1.8531367912405614
0.531696047607427
-8.062078158298727
0.0860827993797823
22.682748237447964
14.917339586741429
23.558289528751303
-8.430483546503377
13.029793763070282
20.036449648726784
-40.08002926796139
-2.1580682891989946
-0.9753206383390207
-1.8613592046801846
9.412892804001617
10.93851631047861
-5.890107692343552
-11.268652962355365
-25.633245995790876
17.73389943460637
-11.340606883450063
-5.04242421397833
1.1165128967918763
22.966958905648646
8.744209129393496
-23.39354008283593
-5.1279849747626765
31.81400890747731
9.047669206751664
-12.398564898422622
-9.833442889526514
-2.609831142657505
-10.94679185797255
-6.811724795647915
0.6963692142620823
-20.101553812628968
-14.20345480530903
-4.835488276583866
7.140321725272409
-4.862186070016749
6.389120060661269
-9.02355770126969
-5.50815735912261
-27.766890837739346
15.718087525020657
6.1323299784478875
-9.508134561695229
-0.8249414983344243
19.38182089518347
16.53826236606986
13.02876171419778
19.077275495870136
-5.190007214051989
-12.752471241747736
0.3088768708716909
-1.4537348139509485
-17.051502384218296
-14.009453104826195
-18.4344370914135
12.142400721898413
4.726024732534138
21.073575457059526
6.3884268074262165
8.024972981655457
26.445920271734217
23.894803440772915
25.28298355761475
-9.428768724613088
-3.9452499838548336
-9.73185970372901
10.11512172531232
-18.720254273814433
-6.255081412379925
-20.679389575443736
-25.11115484498155
-7.089572247338039
-7.571205874614119
29.558769637343257
-8.125296642840004
6.4383712518982
-1.1217845583409454
11.56174916042323
-24.163982540615585
-8.62419570720559
-6.531844220532301
-12.376760539983147
5.253091254636187
19.84551126152582
13.794432825749398
45.99862055005077
-11.438145768496653